digraph Tree {
node [shape=box, style="rounded", color="black", fontname=helvetica] ;
edge [fontname=helvetica] ;
0 [label="forecast_acc <= 58.5\nmse = 135.2\nsamples = 261\nvalue = 62.6"] ;
1 [label="average <= 46.8\nmse = 46.0\nsamples = 109\nvalue = 52.0"] ;
0 -> 1 [labeldistance=2.5, labelangle=45, headlabel="True"] ;
5 [label="temp_1 <= 43.5\nmse = 23.0\nsamples = 31\nvalue = 44.3"] ;
1 -> 5 ;
17 [label="mse = 11.7\nsamples = 13\nvalue = 41.2"] ;
5 -> 17 ;
18 [label="mse = 19.1\nsamples = 18\nvalue = 46.5"] ;
5 -> 18 ;
6 [label="average <= 49.2\nmse = 21.8\nsamples = 78\nvalue = 55.1"] ;
1 -> 6 ;
7 [label="mse = 9.7\nsamples = 27\nvalue = 51.4"] ;
6 -> 7 ;
8 [label="temp_1 <= 60.5\nmse = 17.1\nsamples = 51\nvalue = 57.1"] ;
6 -> 8 ;
13 [label="mse = 10.0\nsamples = 39\nvalue = 55.8"] ;
8 -> 13 ;
14 [label="mse = 18.1\nsamples = 12\nvalue = 61.2"] ;
8 -> 14 ;
2 [label="temp_1 <= 69.5\nmse = 60.7\nsamples = 152\nvalue = 70.2"] ;
0 -> 2 [labeldistance=2.5, labelangle=-45, headlabel="False"] ;
3 [label="temp_1 <= 66.5\nmse = 22.8\nsamples = 74\nvalue = 64.9"] ;
2 -> 3 ;
9 [label="mse = 11.6\nsamples = 51\nvalue = 63.1"] ;
3 -> 9 ;
10 [label="mse = 25.6\nsamples = 23\nvalue = 68.8"] ;
3 -> 10 ;
4 [label="temp_1 <= 76.5\nmse = 43.8\nsamples = 78\nvalue = 75.3"] ;
2 -> 4 ;
11 [label="average <= 70.4\nmse = 26.7\nsamples = 44\nvalue = 73.1"] ;
4 -> 11 ;
15 [label="mse = 40.9\nsamples = 12\nvalue = 69.2"] ;
11 -> 15 ;
16 [label="mse = 13.8\nsamples = 32\nvalue = 74.5"] ;
11 -> 16 ;
12 [label="mse = 51.3\nsamples = 34\nvalue = 78.2"] ;
4 -> 12 ;
}